\data\
ngram 1=10
ngram 2=20

\1-grams:
-2.0	<s>	-0.5
-2.0	</s>	-99.0
-1.5	在	-0.6
-1.2	线	-0.8
-1.0	服务	-0.7
-1.8	服物	-0.7
-0.8	机器人	-0.3
-1.5	机器仁	-0.3
-1.0	上线	-0.5
-1.0	了	-99.0

\2-grams:
-0.5	在 线	-0.3
-0.8	在 线	-0.3
-1.0	线 服务	-0.2
-1.5	线 服物	-0.2
-0.6	服务 上线	-0.1
-1.2	服物 上线	-0.1
-0.3	上线 了	0.0
-0.4	机器人 上线	-0.1
-1.0	机器仁 上线	-0.1
-0.3	在线 服务	-0.1
-0.8	在线 服物	-0.1
-0.2	在线 服务	-0.1
-0.2	在线 服物	-0.1
-0.6	服务 了	0.0
-1.0	服物 了	0.0
-0.2	在 线服务	0.0
-0.2	机器 人	0.0
-0.2	在线 服务	0.0
-0.8	在线 服物	0.0
-0.8	机器仁 开始	0.0

\end\
