\data\
ngram 1=10
ngram 2=8

\1-grams:
-99.0	<unk>	0.0
-2.0	<s>	-0.5
-2.0	</s>	-99.0
-1.0	在线	-0.6
-1.2	服务	-0.5
-1.8	服物	-0.8
-0.8	上线	-0.3
-1.5	了	-99.0
-2.0	在	-0.6
-2.0	线	-0.8

\2-grams:
-0.5	在线 服务
-1.0	在线 服物
-0.3	服务 上线
-0.8	服物 上线
-0.3	上线 了
-0.6	服务 了
-0.8	在 线
-0.8	线 服务

\end\
