\data\
ngram 1=10
ngram 2=8

\1-grams:
-99.0	<unk>	0.0
-2.0	<s>	-0.5
-2.0	</s>	-99.0
-1.0	在	-0.5
-1.0	线	-0.5
-1.2	服	-0.5
-0.8	务	-0.4
-1.8	物	-0.8
-0.8	上	-0.3
-1.5	了	-0.3

\2-grams:
-0.5	在 线
-0.5	线 服
-0.3	服 务
-1.0	服 物
-0.3	务 上
-0.8	物 上
-0.3	上 线
-0.3	线 了

\end\
